{
  "model_type": "countvectorizer_binary_unigram_linear_svc",
  "tokens": [
    "10",
    "19",
    "1990",
    "1993",
    "1995",
    "1999",
    "2008",
    "2009",
    "2012",
    "2016",
    "20th",
    "40",
    "about",
    "academy",
    "according",
    "act",
    "acted",
    "actor",
    "actress",
    "actually",
    "advantages",
    "afraid",
    "after",
    "age",
    "ago",
    "air",
    "album",
    "alcohol",
    "all",
    "also",
    "always",
    "america",
    "american",
    "americans",
    "among",
    "an",
    "and",
    "another",
    "any",
    "anything",
    "appears",
    "are",
    "area",
    "article",
    "artist",
    "arts",
    "as",
    "asked",
    "associated",
    "at",
    "august",
    "author",
    "award",
    "away",
    "baby",
    "back",
    "band",
    "based",
    "basketball",
    "battle",
    "be",
    "become",
    "been",
    "before",
    "being",
    "benefits",
    "best",
    "better",
    "between",
    "beyonce",
    "beyoncé",
    "big",
    "birthday",
    "black",
    "blue",
    "book",
    "books",
    "border",
    "born",
    "both",
    "british",
    "building",
    "but",
    "buy",
    "by",
    "cable",
    "calculate",
    "called",
    "campus",
    "can",
    "car",
    "cause",
    "causes",
    "century",
    "champion",
    "changes",
    "character",
    "characters",
    "child",
    "children",
    "chopin",
    "circle",
    "cities",
    "city",
    "clarify",
    "co",
    "coast",
    "college",
    "com",
    "comic",
    "comics",
    "common",
    "company",
    "compare",
    "computer",
    "contains",
    "context",
    "cool",
    "coronavirus",
    "correct",
    "could",
    "countries",
    "country",
    "county",
    "covered",
    "create",
    "created",
    "creator",
    "culture",
    "current",
    "currently",
    "cw",
    "daily",
    "dame",
    "date",
    "day",
    "death",
    "decade",
    "decision",
    "department",
    "describe",
    "developed",
    "did",
    "didn",
    "die",
    "died",
    "different",
    "diplomatic",
    "directed",
    "director",
    "discover",
    "discovered",
    "disease",
    "do",
    "does",
    "dr",
    "drama",
    "dream",
    "drink",
    "drugs",
    "during",
    "each",
    "earth",
    "edit",
    "edition",
    "effects",
    "election",
    "empire",
    "england",
    "english",
    "entertainment",
    "entity",
    "even",
    "event",
    "events",
    "ever",
    "every",
    "everyone",
    "exactly",
    "example",
    "exists",
    "explain",
    "family",
    "famous",
    "favorite",
    "featured",
    "features",
    "feel",
    "fertility",
    "festival",
    "field",
    "figure",
    "film",
    "films",
    "find",
    "first",
    "five",
    "flight",
    "following",
    "food",
    "football",
    "for",
    "form",
    "formed",
    "founded",
    "four",
    "french",
    "friend",
    "from",
    "front",
    "frédéric",
    "full",
    "fun",
    "future",
    "game",
    "gene",
    "general",
    "generate",
    "genre",
    "genres",
    "george",
    "german",
    "germany",
    "get",
    "girl",
    "give",
    "given",
    "go",
    "god",
    "going",
    "good",
    "got",
    "grand",
    "great",
    "group",
    "guitar",
    "gun",
    "had",
    "half",
    "happens",
    "has",
    "have",
    "he",
    "head",
    "heard",
    "held",
    "help",
    "her",
    "hero",
    "highest",
    "him",
    "his",
    "historical",
    "hit",
    "home",
    "hot",
    "house",
    "how",
    "however",
    "humans",
    "idea",
    "ideas",
    "if",
    "in",
    "included",
    "including",
    "inform",
    "information",
    "instead",
    "interaction",
    "interacts",
    "interesting",
    "international",
    "interview",
    "into",
    "involved",
    "ip",
    "is",
    "island",
    "issue",
    "it",
    "italy",
    "items",
    "its",
    "jackson",
    "james",
    "japan",
    "javascript",
    "job",
    "john",
    "jones",
    "just",
    "keep",
    "kids",
    "kind",
    "knew",
    "know",
    "known",
    "la",
    "land",
    "language",
    "larger",
    "largest",
    "last",
    "later",
    "law",
    "learn",
    "learning",
    "left",
    "life",
    "like",
    "list",
    "little",
    "live",
    "local",
    "located",
    "long",
    "lot",
    "love",
    "machine",
    "made",
    "magazine",
    "main",
    "major",
    "make",
    "makes",
    "making",
    "male",
    "man",
    "many",
    "may",
    "me",
    "mean",
    "meaning",
    "meditation",
    "member",
    "men",
    "mentioned",
    "michael",
    "middle",
    "might",
    "military",
    "million",
    "modern",
    "money",
    "montana",
    "more",
    "moscow",
    "most",
    "mother",
    "movie",
    "movies",
    "much",
    "music",
    "my",
    "name",
    "named",
    "names",
    "national",
    "nationality",
    "nature",
    "networks",
    "never",
    "new",
    "next",
    "night",
    "no",
    "nominated",
    "not",
    "notable",
    "notre",
    "now",
    "number",
    "occupation",
    "of",
    "offer",
    "often",
    "oh",
    "old",
    "olympic",
    "on",
    "one",
    "only",
    "or",
    "organization",
    "origin",
    "original",
    "ot",
    "other",
    "our",
    "out",
    "over",
    "owned",
    "paper",
    "paragraph",
    "parent",
    "parents",
    "part",
    "paul",
    "people",
    "per",
    "perform",
    "performance",
    "person",
    "pirates",
    "place",
    "places",
    "planet",
    "plants",
    "play",
    "played",
    "player",
    "plays",
    "please",
    "poem",
    "point",
    "points",
    "pop",
    "popular",
    "population",
    "portrayed",
    "position",
    "post",
    "premiered",
    "president",
    "prize",
    "problem",
    "produced",
    "producer",
    "product",
    "professional",
    "project",
    "prompt",
    "properties",
    "protagonist",
    "protein",
    "provide",
    "provided",
    "published",
    "rate",
    "re",
    "real",
    "really",
    "reasons",
    "received",
    "recently",
    "recorded",
    "red",
    "reference",
    "regulation",
    "related",
    "relations",
    "relationship",
    "release",
    "released",
    "research",
    "responsible",
    "rewrite",
    "right",
    "river",
    "rock",
    "role",
    "runs",
    "saint",
    "same",
    "san",
    "say",
    "says",
    "school",
    "season",
    "seasons",
    "second",
    "see",
    "seen",
    "sentence",
    "series",
    "service",
    "services",
    "set",
    "she",
    "short",
    "shot",
    "should",
    "show",
    "shows",
    "side",
    "simple",
    "since",
    "singer",
    "single",
    "sister",
    "sitcom",
    "small",
    "so",
    "sold",
    "soldier",
    "solo",
    "some",
    "something",
    "song",
    "songwriter",
    "sounds",
    "south",
    "southern",
    "sovereign",
    "spend",
    "stadium",
    "stance",
    "star",
    "starred",
    "starring",
    "stars",
    "start",
    "started",
    "state",
    "statement",
    "states",
    "store",
    "stories",
    "story",
    "street",
    "student",
    "studio",
    "suggest",
    "summarize",
    "summary",
    "summer",
    "super",
    "survive",
    "system",
    "take",
    "takes",
    "team",
    "television",
    "tell",
    "terms",
    "text",
    "than",
    "that",
    "the",
    "their",
    "them",
    "theme",
    "then",
    "theory",
    "there",
    "these",
    "they",
    "things",
    "think",
    "this",
    "three",
    "through",
    "time",
    "times",
    "title",
    "to",
    "today",
    "tom",
    "too",
    "top",
    "total",
    "town",
    "travel",
    "treat",
    "trip",
    "truly",
    "try",
    "tt",
    "tv",
    "two",
    "type",
    "types",
    "under",
    "union",
    "unit",
    "united",
    "universe",
    "universities",
    "university",
    "up",
    "upon",
    "us",
    "use",
    "used",
    "using",
    "ve",
    "very",
    "visit",
    "want",
    "war",
    "warming",
    "was",
    "washington",
    "watch",
    "way",
    "ways",
    "we",
    "well",
    "were",
    "west",
    "western",
    "what",
    "when",
    "where",
    "which",
    "while",
    "white",
    "who",
    "whose",
    "why",
    "wild",
    "will",
    "with",
    "within",
    "without",
    "women",
    "won",
    "wonder",
    "words",
    "work",
    "workers",
    "world",
    "would",
    "wp",
    "write",
    "writing",
    "written",
    "wrote",
    "yeah",
    "year",
    "years",
    "yes",
    "york",
    "you",
    "young",
    "your",
    "yourself"
  ],
  "weights": [
    -0.14927595203386865,
    -0.3884266488553861,
    0.0,
    0.0,
    -0.5838109016064991,
    0.0,
    0.0,
    -0.29420149565567133,
    -0.04055079993641023,
    -0.18086858279241677,
    -0.08201214041765587,
    0.87109733994022,
    0.09471631407906311,
    -0.08814534000806955,
    0.05784274901907194,
    -0.21673901444344296,
    0.0,
    0.0,
    -0.12164555592175272,
    -0.841119050242914,
    0.34241432781747216,
    -0.798551435362877,
    0.5103164494700017,
    -0.29420149565567133,
    0.0,
    0.059401912547199745,
    0.0,
    -0.05922184792174962,
    0.08980450939601448,
    -0.1949398939108626,
    -0.3834113755920885,
    0.0,
    0.07453234828137842,
    -0.4931574760978905,
    0.0,
    -0.16464634069780162,
    -0.18363618401120269,
    0.17728104038284542,
    -0.6260341558029714,
    0.7400972714116857,
    0.06874681744853145,
    -0.045579596023570534,
    0.12910764374206532,
    0.0,
    0.0,
    0.0,
    -0.3585143019450259,
    0.17728104038284542,
    -0.09284116310613863,
    0.056855326064012945,
    0.036545322365264796,
    -0.07206029833956598,
    -0.08814534000806955,
    0.6741664170924225,
    -0.32833601791794764,
    0.41773039779357446,
    -0.5220329641021542,
    -0.32816279397991205,
    -0.01768256957151337,
    0.0,
    0.10054705420874799,
    -0.10749341246508692,
    -0.4833378853282646,
    0.1665282707053044,
    -0.07887645090751264,
    -0.2864582386807899,
    0.43582417848891464,
    0.0,
    0.8534071761731206,
    -0.7706637941477954,
    -0.8282136034157228,
    -0.3765438566446493,
    0.0,
    0.0,
    -0.594389677924102,
    -0.0173543286576932,
    -0.004111653604773692,
    -0.19337755902117648,
    -0.03350021591368317,
    -1.5541638719271142,
    -0.708205971988712,
    -0.11657747099179089,
    0.5991490197125013,
    1.0162517145200574,
    -0.5197131512095808,
    -0.5254211580379186,
    0.4252447412134727,
    -0.07448720934701607,
    -0.17019431532206944,
    -0.12357365953731575,
    0.45406487452294275,
    -0.15180038292174988,
    0.0,
    -0.08201214041765587,
    -0.25161846011190864,
    -0.19163849138880595,
    -0.36662848294267564,
    0.0,
    -0.08865561769797513,
    -0.005682501581789845,
    -0.4346005987387041,
    0.23795914802055582,
    -0.024028267430363005,
    -0.17068772152691036,
    -0.0629815222424457,
    0.23797221053265175,
    -0.08882952385172796,
    -0.32220137708261354,
    -0.15150399160214492,
    0.0,
    0.0,
    0.29082397151824735,
    0.09865683602094821,
    0.47512845827038475,
    0.1897536913889727,
    0.0,
    -0.3209010149340232,
    -0.313044231945949,
    -0.7797647469811818,
    0.4414933405356605,
    -0.7620739410376595,
    0.14462449115533463,
    -0.18027102876917667,
    0.0,
    0.0,
    0.3220780420651379,
    -0.4664203768766453,
    0.18817652954099925,
    -0.5006827355102375,
    0.0,
    -0.5081856524609802,
    0.6884715036674867,
    -0.07448720934701607,
    -0.17443784568261783,
    0.036545322365264796,
    0.36916592453885916,
    0.0,
    0.0,
    0.3532674116151854,
    0.0,
    0.4890032392311304,
    0.0,
    -1.0180116600693556,
    -0.021073239238914597,
    0.060577751687435365,
    0.060577751687435365,
    1.3275235371610266,
    0.0,
    0.4151769294148817,
    0.0,
    0.0,
    -0.3560428113764335,
    -0.7797647469811818,
    -0.18605749036030428,
    -0.48369651443257483,
    -0.6763453836539768,
    0.0,
    -0.3346288941972479,
    0.7789460044474054,
    -0.058647619484964886,
    -0.13493856484701633,
    0.6035726169520481,
    0.0,
    0.6848783628225334,
    -0.16152219617903185,
    -0.29771228319414117,
    1.1881765295409992,
    0.24072429755570893,
    0.0,
    0.4866366778241903,
    0.0,
    0.0,
    -0.3296661081506522,
    -0.5426820280341697,
    -0.5439580438808397,
    -0.8084596863474108,
    0.0,
    -0.055526642650892695,
    0.36068376803895624,
    -0.20084056454636612,
    0.0,
    -0.3950689977690458,
    0.0,
    0.08390601216191329,
    -0.46857915783116955,
    -0.013104150456077285,
    -0.4683223686631607,
    0.28793878828480046,
    0.0,
    -0.27333823456995077,
    -0.26019774694137676,
    0.4457121526054359,
    -0.27333823456995077,
    -0.1948995447887252,
    0.9222897734735569,
    0.00733135104072602,
    0.32052939868538066,
    -0.24167412531023888,
    0.5067133836562792,
    0.0,
    0.3436308510685142,
    -0.12055463717111148,
    -0.24681359422847954,
    0.44955325819415703,
    -0.37539451363943116,
    -0.42423978853714017,
    0.501703513415018,
    -0.5444696440456246,
    -0.37900290983645424,
    0.11165054670547057,
    0.0,
    0.5949444705703052,
    -0.25384221431150206,
    -0.015350099749703056,
    -0.4148683575298724,
    -0.3519101749868448,
    -0.2227755397635641,
    0.24815552283680595,
    0.0,
    0.0,
    -0.07828750600158135,
    0.12157246906798988,
    0.0,
    0.33857304356210904,
    -0.3792997219873148,
    0.14820431739946527,
    0.21575952514517324,
    0.5500985347451703,
    0.18817652954099925,
    0.8576426460535512,
    -0.28532391534478135,
    0.0,
    -0.2921376169688832,
    -0.38853587890002844,
    0.3779775244558623,
    0.427934203766113,
    0.0,
    -0.08477493562015914,
    0.0,
    -0.3214722093624569,
    -0.13848931201004255,
    -0.43115389297874085,
    -0.3668078338131013,
    0.0,
    -0.8409971133265914,
    0.0,
    -0.3996412779099243,
    -0.560111696975949,
    0.0,
    -0.01768256957151337,
    0.1199028113043058,
    -0.7544436358749183,
    -0.0038689208150034684,
    -0.2201470916054371,
    0.11643666893970872,
    -0.39828015493478874,
    1.0314466452445952,
    -0.3977869844823596,
    0.19225561574852332,
    -1.0112376550828597,
    0.5030663737811718,
    0.2413546256406415,
    -0.4796007509993969,
    -0.2944058736374364,
    -0.35663498802194876,
    -0.2572898143798532,
    -0.11882873318688052,
    -0.7296849532846947,
    0.25358480396574423,
    0.0,
    0.0,
    0.09714793167603814,
    -0.2014486116093639,
    0.48523630167890985,
    0.5389532064306639,
    0.0,
    0.5375223217400165,
    -0.1819558988124017,
    -0.06380857708874058,
    -0.2921376169688832,
    -0.3888325999548461,
    -0.10293004670284744,
    0.3212761497969696,
    -0.45312652962204436,
    0.0,
    0.0,
    -0.04055079993641023,
    0.0,
    0.0,
    0.0501003590149125,
    0.0,
    0.4610783005190127,
    1.0,
    -0.23482483131496146,
    -0.023505400403150883,
    0.3388259676415072,
    -0.5052056182176132,
    -0.4401049838228021,
    -0.22824464615021792,
    0.28127509749211915,
    0.26586454852615576,
    0.0,
    -0.24229171757735737,
    -0.21104031196081122,
    0.0,
    0.0,
    0.7400972714116857,
    0.427934203766113,
    0.9766333401343137,
    0.13369631003392796,
    -0.20734124595747477,
    1.132847192066769,
    -0.6345916520517249,
    -0.06380857708874058,
    0.0,
    -0.2941385901361731,
    -0.21878303781562766,
    -0.5823142673010939,
    -1.0289701717084114,
    1.0,
    0.5255715259506446,
    -0.37670665043065305,
    -0.09471473665842955,
    -0.4684176255260326,
    0.24127238339429036,
    -0.093152763436785,
    -0.13284122897325176,
    -0.32396201244679845,
    -0.5133317502602058,
    -0.6127427909451584,
    -0.06380857708874058,
    0.2070915459172682,
    -0.35153526705860694,
    0.0,
    0.6245273355962866,
    -0.7511968754269622,
    0.0,
    -0.2976059052090121,
    0.0,
    0.40127623078467567,
    0.8722190525982403,
    -0.4966360552153043,
    0.6741664170924225,
    0.0,
    -0.33998627220001554,
    0.0,
    0.14497206741543023,
    -0.5508285842208205,
    -0.30452063669347273,
    -0.019369954361169284,
    0.1663546836097589,
    -0.024203219758462305,
    0.4867990744153132,
    -0.35631309273712275,
    0.8128167288318608,
    -0.08945022479944775,
    -0.2785313616110098,
    0.2762088991835467,
    0.0,
    -0.07206029833956598,
    1.0,
    0.059401912547199745,
    -0.07461666937155487,
    0.25220190787391084,
    0.18817652954099925,
    0.0,
    -0.37870432804027915,
    -0.08814534000806955,
    0.4346804701131223,
    -0.3018159898287564,
    -0.17443784568261783,
    -0.01009267028946062,
    -0.17649203275500933,
    -0.36474264289273484,
    -0.014832325811564462,
    0.0,
    0.18817652954099925,
    -0.027171393453920833,
    0.18817652954099925,
    0.0,
    -0.030732587871460715,
    -0.030135428546023302,
    0.04297966371465467,
    -0.11333532239808985,
    -0.12952998289671924,
    -0.0038689208150034684,
    0.0,
    0.44254285921358605,
    -0.36240748414152135,
    0.20742098511271734,
    0.14618578732036747,
    -0.27342772806160887,
    0.0,
    -0.07448720934701607,
    0.6776769301055867,
    0.0,
    -0.08865561769797513,
    -0.23233670905847015,
    0.0,
    0.3134068982600755,
    -0.024028267430363005,
    0.6727401677580874,
    -0.13493856484701633,
    -0.026703972415239516,
    -0.07109807216613817,
    -0.5914527558729414,
    0.6461816228254804,
    0.05470596968187278,
    0.5494455097815119,
    -0.13557638988595944,
    0.03860740586109679,
    0.6122320944554038,
    -0.7843585638827072,
    0.32688341941855537,
    0.0,
    0.6966497927355285,
    -0.01768256957151337,
    -0.03948940044194901,
    0.0,
    0.0,
    0.0,
    0.09390839478718735,
    -0.04332144436435237,
    0.0,
    -0.21878303781562766,
    0.0,
    1.0,
    -0.4635398536475007,
    0.046767775041831855,
    0.0,
    -0.25161846011190864,
    -0.7210228995428899,
    0.0,
    0.0,
    0.0,
    0.0,
    0.29731010814445363,
    0.2078918307957265,
    -0.396863892673533,
    0.0,
    0.25274126259538604,
    0.060577751687435365,
    -0.8288620239203572,
    0.3490915403939262,
    -0.03948940044194901,
    0.0,
    0.0,
    -0.39828015493478874,
    0.4457121526054359,
    -0.0822105355302802,
    -0.36474264289273484,
    0.0,
    -0.846270078436173,
    -0.0308731213185654,
    0.6553492713369073,
    -0.0942681347538119,
    0.0,
    0.0591646097770329,
    -0.10470308963633045,
    0.1783450507892717,
    -0.0036816681545945524,
    -0.03948940044194901,
    -0.19337755902117648,
    0.0,
    -0.2941385901361731,
    0.0,
    0.14706692751673978,
    0.1155145924903633,
    0.6473187675942981,
    0.0,
    0.0,
    0.29217450892617713,
    -1.2116552441410988,
    0.2824885515968473,
    0.7726159548101238,
    -0.14499366266010155,
    0.0,
    -0.14606538070006098,
    0.0,
    0.48174680864868535,
    0.23957055920965922,
    0.9766333401343137,
    0.015195375124114896,
    0.3749464467340154,
    0.0,
    0.055130164396643234,
    0.4705273872938785,
    0.060577751687435365,
    -0.03948940044194901,
    -0.5642976756680591,
    0.0,
    0.0,
    -0.27197130901369665,
    -0.133125347996719,
    -0.9532251947194573,
    0.1641805373603296,
    -0.20112332537382865,
    0.17065136735823822,
    0.19225561574852332,
    -0.450397794153453,
    0.0,
    -0.5166387155064593,
    0.0,
    -0.19337755902117648,
    0.0,
    -0.5132009255846868,
    0.3436308510685142,
    -0.0822105355302802,
    -0.14934944124346344,
    0.0,
    0.0,
    0.6433650119780512,
    -0.5135478957188337,
    -0.6404611412219944,
    -0.3765438566446493,
    0.0,
    0.2832168531792586,
    0.0,
    0.19221121531855737,
    0.44739531715560166,
    -0.2154743848431365,
    0.3387236492560178,
    0.0,
    0.22191079990941198,
    0.6134912353302825,
    0.37396873856087787,
    -0.4043022243133336,
    0.31753142907047377,
    0.54467300384563,
    -0.13694251996134427,
    -0.791668597725144,
    0.20281273386129572,
    0.07949199068460522,
    0.0,
    -0.060464673022340154,
    -0.3000826843454756,
    0.4414933405356605,
    -0.3382304553468034,
    -0.3265566811999163,
    -0.24608537241466344,
    0.28720442131076296,
    0.2664286133471522,
    0.0,
    0.07201408892856764,
    0.6999173156545244,
    -0.28452468163493233,
    1.3205293986853808,
    0.07358233798865821,
    0.6398906272718037,
    0.12061841355023395,
    0.5441671807780207,
    0.29179402801128795,
    0.0,
    -0.17286979526347812,
    0.0,
    0.5006365995164873,
    0.3902160793908155,
    0.5465073522324082,
    -0.16879950915465042,
    0.316417745080607,
    0.11060929182907257,
    0.0,
    0.0,
    0.0,
    0.2202352530188182,
    0.0,
    -0.08865561769797513,
    -0.8658835475059887,
    0.5081136207062789,
    -0.14499366266010155,
    0.20016242576548632,
    -0.08795249729214424,
    0.444011591169166,
    0.36631726343209825,
    -0.03821157393763868,
    0.06303968373841808,
    0.022255781180797407,
    0.0,
    -0.0942681347538119,
    -0.17019431532206944,
    0.10734552672926723,
    0.0,
    -0.0942681347538119,
    0.9005183524511566,
    -0.5740364445072876,
    0.2312043075401073,
    -0.004111653604773692,
    -0.3765438566446493,
    0.5282949524107303,
    0.22096553978022393,
    -0.5439580438808397,
    0.19225561574852332,
    -0.5642233806366526,
    -0.01768256957151337,
    1.0840094540911789,
    0.8935417749373261,
    0.7832609855565571,
    1.0659614696148951,
    -0.10951626102543255,
    -0.8648773670263977,
    0.0,
    0.0,
    -1.104252901724129,
    0.16810289026454373,
    -0.7244419262190682,
    -1.6023552720277112,
    -0.26922455630995734,
    -0.4023359216024396,
    -1.3525854741829129,
    -0.3000826843454756,
    0.6334887418928641,
    -0.4679551240990445,
    0.020842352414598142,
    -0.23815142460518063,
    -0.3919320006996295,
    0.9752678904509058,
    0.4560419561191603,
    -0.29420149565567133,
    0.01719626223959511,
    0.6140605866048334,
    0.037297848437904846,
    0.3562230449909028,
    0.5983079733897291,
    0.7896132247902965,
    2.1600954396663394,
    0.5505482507515953,
    -0.36474264289273484,
    -0.07828750600158135,
    0.0,
    -0.48774637182217645,
    -0.3309743451613057,
    -0.43889575536457914,
    -0.8817707018214509,
    -0.02460249586714774,
    -0.4652512137090825,
    0.0,
    1.2437955819379758,
    0.0
  ],
  "intercept": 0.7088198839821971,
  "decision_rule": "score = intercept + sum(weights[i] for matched token i); score > 0 -> positive_label else negative_label",
  "negative_label": "needs_fact_check",
  "positive_label": "no_fact_check_needed"
}
